#ifndef STEPFILE_H
#define STEPFILE_H

#include <Arduino.h>

// Auto-generated PROGMEM Weights (0 bytes SRAM used!)

const float W0[16][4] PROGMEM = {
    {-0.645107, -0.079084, -0.193831, 0.412091},
    {0.552225, 0.101713, 0.273064, 1.072910},
    {0.016693, -1.380996, -0.427960, -0.605640},
    {0.401366, -1.765597, -0.278789, -0.844069},
    {0.072457, -0.468403, 0.223335, -0.325000},
    {-0.040762, 0.038796, 0.652110, 0.318001},
    {0.285148, 1.500835, -0.206943, 0.279145},
    {0.392902, 0.280839, -0.560969, 0.399909},
    {0.107017, -1.009970, -0.134985, -1.474241},
    {0.255221, -0.117021, -0.559966, 0.254940},
    {-0.002747, 1.089761, 0.306361, 0.454279},
    {0.541650, -0.304613, -0.066139, -0.001505},
    {0.100753, 0.701624, 0.053854, 1.183272},
    {-0.113481, -0.189035, 0.204850, 0.814671},
    {0.182108, -0.567303, -0.131117, -0.754290},
    {0.293431, -0.557803, -0.314975, -0.540790},
};

const float b0[16] PROGMEM = {
    -0.011203, 0.003951, 0.006990, 0.061895, -0.071500, 0.052307, 0.071208, -0.009663, -0.028185, 0.035116, 0.042391, 0.088011, 0.003728, 0.123448, -0.034232, 0.001916
};

const float W1[16][16] PROGMEM = {
    {0.523105, -0.747706, 0.525932, -0.150650, -0.415370, -0.624811, 0.255824, 0.099893, 0.345994, 0.422458, 0.096916, -0.089466, 0.360365, -0.078885, -0.025678, 0.244807},
    {0.312611, 0.375571, -0.126602, -0.443298, -0.111874, 0.465546, 0.385439, -0.269309, -0.038674, 0.431022, 0.810700, 0.256768, -0.170557, 0.674488, -0.394695, -0.665176},
    {-0.376098, -0.395841, 0.086681, 0.337347, -0.222201, 0.529496, 0.788061, 0.119846, 0.298658, 0.265279, -0.584654, 0.451905, -0.307931, -0.203212, -0.194153, 0.042931},
    {0.044302, 0.462409, -0.314082, -0.810739, 0.266450, 0.315358, 0.658873, 0.017135, -0.503584, 0.313806, 0.267983, -0.612560, 1.155024, -0.028692, -0.703336, 0.317128},
    {0.037110, 0.012398, 0.338349, 0.124496, 0.628114, 0.077771, -0.516391, -0.160031, 1.062469, 0.047830, -0.020068, -0.045089, -0.950680, -0.869796, -0.077399, 0.067045},
    {0.173885, 0.579652, -0.277758, -1.273263, -0.194585, 0.062176, 0.905036, 0.112876, -0.685613, -0.118888, 0.036597, 0.354887, 0.676584, -0.300545, 0.464552, -0.387206},
    {-0.161752, -0.632859, 0.468915, -0.003935, 0.414065, 0.149117, -0.854944, 0.226210, 0.964354, 0.009336, -0.377287, 0.558663, -0.661976, 0.391261, 0.446308, 0.857957},
    {0.526358, 0.483831, -0.115719, 0.093932, 0.428625, -0.270409, 0.159545, -0.066011, -0.852263, 0.607309, -0.248566, 0.737416, 0.684252, 0.015334, -0.376429, -0.110470},
    {-0.235871, -0.792814, 0.055171, 0.227016, 0.527651, -0.030060, 0.050694, 0.025933, 0.556379, -0.315464, 0.305907, 0.109580, 0.343224, -0.142147, 0.196079, -0.647031},
    {0.747401, 0.271373, 0.297803, -0.102390, -0.281495, 0.526511, 0.430420, 0.196443, -0.816624, -0.705041, 0.473283, 0.234819, 0.535747, -0.215760, -0.470060, 0.083752},
    {0.751425, -0.492186, -0.471902, -0.224888, 0.362341, 0.533189, -0.199926, 0.185559, -0.462657, 0.153612, -0.247145, -0.543055, -0.176883, 0.082141, 0.098276, -0.274302},
    {-0.199324, 0.103235, -0.549513, -0.499327, -0.569265, 0.125559, -0.018011, 0.796662, -0.712322, 0.326517, 0.573091, 0.371594, 0.634073, -0.376772, -0.611235, -0.302801},
    {0.105422, 0.259168, -0.072219, 0.290666, -0.332516, 0.771313, -0.412012, -0.558962, -0.146783, 0.465105, 0.240232, 0.068404, 0.626703, -0.190122, 0.545401, 0.139229},
    {0.338204, 0.456887, -0.381798, 0.530379, 0.235763, -0.119434, 0.459509, 0.553988, 0.080026, 0.255013, 0.422120, 0.019405, 0.025013, 0.048275, 0.511840, 0.449233},
    {0.501300, 0.708350, -0.512801, -0.266798, -0.477847, 0.287967, 0.198832, 0.449177, 0.218345, -0.292287, -0.273546, 0.060897, 0.898365, 0.333284, -0.465608, -0.505468},
    {-0.289102, 0.487319, 0.781311, 0.060411, 0.156269, 0.353462, 0.171145, 0.644381, -0.392712, 0.189131, 0.046308, -0.140151, 0.404496, 0.290190, 0.023123, -0.422256},
};

const float b1[16] PROGMEM = {
    -0.041597, 0.025952, -0.009297, 0.024840, -0.052441, -0.008709, -0.026481, 0.038427, -0.013121, 0.015276, -0.022448, 0.014857, 0.019802, -0.017500, 0.008716, -0.006962
};

const float W2[1][16] PROGMEM = {
    {-0.110820, 0.203618, -0.077540, 0.382998, -0.381561, 0.420573, -0.400501, 0.296989, -0.094158, 0.311733, 0.028107, 0.360298, 0.349813, 0.123108, 0.191139, 0.090301},
};

const float b2[1] PROGMEM = {
    0.001084
};

#endif // STEPFILE_H
